,0,1
0,8.751539568216499,-1.3545513038784198
1,-4.950892358724715,10.832486422347097
2,-2.7753723129472445,7.214113420696974
3,-8.214062517834545,-6.642241203657792
4,-2.8407771463264013,9.357101208378973
5,-5.818770199011594,8.019646039470407
6,-1.9726829317031835,10.514396221202647
7,-4.852560347801941,-10.48101810033315
8,0.9887496011149165,-9.400402339556775
9,-9.123739974086513,6.226732890951711
10,5.342615477500438,-10.956861201936515
11,2.4151722955706894,-9.72683889557691
12,11.132954342919977,-4.919095169526311
13,9.239365374347008,-2.725603705064563
14,10.203493621799543,-5.486424856478654
15,5.230743170771735,-7.6120281724760535
16,-7.84389091115475,-3.5304485341811622
17,4.7705948534950195,-2.543150064849739
18,11.16811550145888,-6.18412211630036
19,-10.478085588919894,-1.7230785410923393
20,-3.154440005565689,-7.953344152893277
21,-10.12995070849514,0.29682757844182517
22,-7.54318637495829,-7.634187331327108
23,-5.717356086701648,-8.622296677010446
24,-8.104935130920454,-8.599960742535734
25,-3.7267958581019696,6.6803979714703585
26,-8.16293453243186,9.212519535823608
27,-8.529303388015116,7.102975923081109
28,-3.6552194205087463,7.777565339485073
29,-1.7030330171141577,9.471447649692289
30,7.1116428697939345,-7.609695776178867
31,3.3426459619004927,-10.180962337327198
32,0.7599274699618931,-7.1381763740346305
33,1.2624728713197861,10.58535561206401
34,4.042861160283717,-3.5831481289681246
35,1.9490417612719197,-5.072471684472876
36,1.4923454537377638,-10.27872460252263
37,7.870265841457271,0.6123254505331814
38,-8.149283321602159,8.10561786100557
39,9.176975312014426,-5.000248130183967
40,7.66459399416423,-0.9405642325983146
41,-7.1208860870347515,-6.585180410053723
42,-8.35798737156773,-1.7779616304007138
43,-6.725381219607499,-5.547373248131158
44,-5.693148709167805,-5.797208266798928
45,-7.376234251998341,-1.3224747512342416
46,-5.098022644963913,-0.20221274711130013
47,-3.9495695763778227,-11.137544870149993
48,-2.340293690908643,-4.994035723976175
49,-0.9232130083737025,-10.076005388251168
50,1.494321469643014,9.581757686076548
51,7.6969106478386164,-9.748489872607347
52,8.974399474842905,9.591773172028319
53,5.012393742526862,-6.392076240648051
54,-2.6532648475161276,8.237566554537334
55,-1.0635131821944444,-6.383203919470905
56,-0.9342271939789619,10.315295048765337
57,5.848058141670038,-3.003819818584743
58,5.787056054320949,-0.6638063954911069
59,-3.7116867108115676,10.139444828430568
60,9.95814166279146,-1.812713715451741
61,-6.273516460666143,-4.345810757409715
62,9.783554259061034,-0.6925041662148813
63,-8.563532260934965,3.1194343186467397
64,-2.6444077926920015,-1.8587272627975053
65,-9.445990836776787,-2.166967690906879
66,-0.48025292512943807,-1.8767621508224575
67,-2.8649691352914086,-8.993772360972434
68,6.106535147429256,-7.121613056587599
69,-1.6389210174907323,7.310688191578452
70,4.195891581755286,-9.358758115300999
71,6.06015248568338,-5.957268190588311
72,6.308405828453206,-9.243064588252706
73,3.757127955753711,11.101028027231647
74,2.931457848730295,-7.434937579327533
75,3.3403170502857615,-8.709123667306399
76,1.3281408793302085,-2.76949591106459
77,0.3587025355336288,-10.518996218203757
78,8.14499643310663,-4.684253502485914
79,4.373478909775739,-8.335597600431063
80,4.509792834639943,-0.33764507337544325
81,7.040511366776726,-6.475008053340984
82,-2.4595765959472953,-3.915193181381586
83,-6.853493445383667,-3.431181066236691
84,-7.211934500719105,4.1334864057149305
85,-0.4067241148732616,3.4874221433645576
86,-0.5383457974257083,-7.5687574789769805
87,-0.6447504995607622,9.137407657131165
88,-1.2499373370858549,-5.328242791120842
89,-1.0158536812589043,-8.46619329254
90,6.102778956254487,0.37082303953259416
91,-0.001052277165384927,-8.488034871235246
92,8.61440792988841,-9.290490323309703
93,1.1972558130583546,-6.0709961810414566
94,-3.2130822253592535,-3.1975759054104427
95,3.3958915882552234,0.3353585079950831
96,8.65740720603428,3.353009038542053
97,6.9851930200324475,-5.287432733315431
98,10.847011149695128,-1.1769823167106523
99,5.962536246756361,-4.9127719926923525
100,4.847435575460469,-1.468657107578253
101,-6.143965131000753,-7.091946772959853
102,-8.445759511264376,-4.531039804301757
103,9.465389546292862,1.6515330041885468
104,-4.1078762263929836,-7.079162977600247
105,-2.9442115587104825,10.891603022647315
106,3.5031791089137987,-0.8261314530316682
107,-2.113026896471544,-10.717410103018818
108,0.39980913666966117,9.77792568065593
109,-1.5191390487942247,8.350646746794173
110,0.1726190457828627,-2.72757394913757
111,4.6989991970565,2.255159271138549
112,8.764747164791657,-3.7614200239265885
113,6.212767647170719,-8.248869882366645
114,0.5339429558244024,-3.7194806623431464
115,4.061834653616073,1.3071457657375463
116,2.4228912526352127,3.190984081467006
117,-9.292183814588322,-5.407109933749296
118,-10.93680907162789,-3.7645501431522845
119,-9.222434770789945,-3.837578922395996
120,8.180823778221672,-2.557930858171482
121,8.849653886350023,0.7741080411860616
122,-10.629486114926625,2.211721149883748
123,-4.18509701201423,3.2755058178078387
124,-4.312957486135304,-3.8256973532994514
125,-8.256194727055531,4.197906696884091
126,-5.243939336623276,-4.45770080737074
127,1.7977606115531701,-7.189725167065859
128,-6.949545667225257,-8.63539943918244
129,-3.3317855335710895,-5.582588789025185
130,-4.275066668522915,-4.999882633065244
131,-3.1382378070036023,-10.421110766623379
132,8.439876061677174,-8.038165638364143
133,-0.7273100560310422,-0.8499918727866138
134,5.263878670310815,-3.8424761931605516
135,3.880060684180121,-2.0126219104848415
136,10.057592371047619,-3.215178868039526
137,2.931564410694142,-3.1676305542982623
138,6.881352495455077,-2.6456348789005633
139,7.679037786163472,-3.5935112167962386
140,9.836675345736003,2.608083882302994
141,-7.962497142427305,-5.6353757749332365
142,-6.0754164394479675,0.08299342082127281
143,-5.648599866155638,-3.283518709422524
144,10.83140518387522,-2.3735128079672934
145,-4.706644412228788,-1.441744827274338
146,-7.331175732020428,-4.473990107856879
147,-4.759136132367445,9.658782360199393
148,-2.1071826081881824,-2.9472448488790524
149,-0.1433782426040835,-9.446529754609015
150,1.170812005086155,-8.142395653229384
151,-1.137059612497487,-11.015672557794492
152,2.4893668736868793,-0.911713668534331
153,2.2943369605358623,-8.216880299369226
154,2.8696954213005754,-2.034371624838726
155,-1.9150138516215889,-9.595137655305887
156,2.7081357505297285,-4.29169420099111
157,-1.4580257012942675,-3.973127865531989
158,5.67832812619956,2.8760017367211232
159,7.672738696971319,4.092733651649279
160,6.6410837528651525,-3.7719138172509306
161,-7.5165430968994436,-2.5046857271706675
162,-4.775054403807389,7.512868942532266
163,5.692593671100063,8.216038489059455
164,6.976549909594759,1.1451516610501369
165,10.038869822526552,0.5917322502169873
166,8.257488608847105,10.448395016012888
167,-7.174222787807233,1.9602307051050314
168,-6.158658405563926,2.426720754855791
169,-7.235635620208338,-10.602265750161465
170,0.5640779748832881,-1.6820332321712212
171,1.6771213060189125,-1.6771912220007534
172,2.2968168697918725,-6.095740549208939
173,-0.3007889738296102,-5.694738342893204
174,-7.144579815735181,-0.15709631499537186
175,3.2338030648473977,8.347537369281333
176,5.85690932736462,3.8846708467818383
177,-8.40767298299342,-0.6084152352471146
178,-10.87553470120772,1.1236774132385912
179,1.8457761203656777,2.293125131929093
180,-9.555659539204822,-0.5468885334825162
181,10.590070367474775,1.6393654946446552
182,-9.074444356532348,0.4419451810447611
183,-1.2432104471723546,1.204080831489543
184,7.194560932892021,7.386190594260534
185,-6.036492903099828,5.652454102803115
186,-3.0573223154834888,0.3215426660132649
187,-4.4660510179892405,2.0909034657362864
188,-5.50518608021343,-2.188573930535782
189,-2.1153896418951077,-7.051093768781148
190,-1.738442992528181,-1.2179272980008464
191,4.851933298449329,7.10041463901042
192,-6.802779429658086,0.8643857066958748
193,-3.763801990538535,-1.9943598088528347
194,-9.807693104646674,1.4083396118539824
195,-0.03149541980825135,6.94259497539176
196,0.009629615779351699,0.8252684959176213
197,5.338980079828847,4.866941921171321
198,5.883361067955718,-2.043084364783891
199,3.896224693925138,-6.065832752939802
200,1.6150547744145032,8.31619394448149
201,8.560815485435185,-0.30674070536210807
202,4.806366791915424,3.841445229772893
203,9.876953791468777,5.7974451124451365
204,-7.432175449092147,-9.586449100536692
205,-6.087577311660969,3.4956154274471265
206,8.630594509039483,4.4284999074707905
207,-11.076746360713406,8.84920735586136
208,-7.908838769909665,1.0566851509252195
209,1.6231581687310241,-3.98110558008045
210,0.6705505957453468,7.656752226425449
211,2.9773390802526944,2.1436594180224935
212,2.3983824890874006,0.17715700179166222
213,2.6388277863079526,6.549360664475205
214,0.9760556295100523,4.8650301703383825
215,3.945555973643656,2.98617684111812
216,5.782632909207143,1.5429309987018898
217,-8.785818068404318,-2.916278896991673
218,6.653525573724508,4.995409695174335
219,-0.8054870741262932,-3.1921074587415337
220,6.796156834661975,3.5563477865286086
221,-10.693147744130025,-9.206086793583074
222,6.118331565448976,5.899035597654719
223,-5.118992702939466,-7.796586634712943
224,6.765861224565684,-1.5525818956882371
225,11.123955397798518,5.244854084458525
226,-9.336559640246149,2.3526394531041026
227,-5.894828017004861,-1.0171909980350464
228,-3.0454143613057965,-0.7537986642531287
229,0.756878610748802,-5.093531065947353
230,-6.546822056856173,-1.8790288181740493
231,7.782705049372987,6.404955089866033
232,7.827851037094042,5.1814962066267345
233,5.216329660082015,9.265846166550313
234,6.5457678163849575,11.083696614466142
235,7.2616665202481485,10.137171182088727
236,0.596973405665389,3.674467787558715
237,3.1502275464117515,5.544989981907688
238,5.312802498243252,-8.80670085542608
239,4.38952527395669,8.123288509676991
240,5.965114595303193,6.932949259796718
241,3.88113345133478,-4.871649209009092
242,-9.368017685121423,-10.579190309625998
243,-4.912571952449859,5.148978114666713
244,10.971009878307127,0.09496728593718333
245,-10.98946212272165,7.404044519055784
246,-8.304737303767734,2.0672705260841546
247,-4.607039265245565,-2.781714362136981
248,4.978660439506602,5.91346640247854
249,-1.5425193095678906,4.30682248090725
250,0.9091286115969982,1.6408094090319902
251,2.7376724392335507,4.58069882819371
252,1.740653382523793,5.991587461034122
253,4.472749899823045,-10.384797870112505
254,0.26232087133865806,5.811775420213611
255,5.052469811258242,10.33224026587675
256,8.782766120879455,5.539042459123659
257,6.615756214982666,-10.22003165753814
258,9.688179676970439,4.77086555606567
259,7.681827338032236,2.960603948124973
260,11.00743525338322,-9.999817530119696
261,11.12080075965713,11.058983861328686
262,-7.000404472142415,8.121355349245244
263,-2.9954432151050323,3.342526595893165
264,8.22806575247443,7.431122188829498
265,-0.9449567849847801,5.406903541100703
266,-9.581619769178399,4.361340132196165
267,-10.19637876549537,8.083831853940177
268,-1.3384241119702756,2.2062411543839455
269,-3.435206234125592,2.467916308928695
270,-3.985227653655727,-0.2005584019975532
271,1.6769729058573963,3.9132085471193503
272,-2.0193643599969553,-0.1407895539218818
273,1.5244595141734951,7.035893972969396
274,-10.787636454609268,6.2994117296467556
275,7.554023402356552,8.263089197760364
276,-8.488833702709528,-9.938194848919267
277,11.173650329537445,9.948671170787605
278,9.216283761630212,-7.256540014179993
279,-6.869828124848879,10.464042664628055
280,6.872076084206008,-0.24209092058759052
281,10.640623528585762,4.302046182509177
282,-7.174204373925136,5.201823804856138
283,8.618285942839584,2.26302168657205
284,-3.2601337215860555,-4.536846229797325
285,-5.180855537874072,2.7537796006267556
286,-4.641233349866189,6.1644673182257845
287,-9.715523798186421,7.073488582656117
288,-2.298230401240964,0.9406777906697044
289,-6.811268504848032,6.304164858480112
290,4.115850599141779,9.197860238787795
291,-0.41784128033560874,8.111928630053766
292,1.2428126672808666,-0.7438776771118507
293,4.013847820932583,6.215006557838525
294,9.222631288238311,-6.1698772779203495
295,4.3084591394954455,4.9172834450541085
296,10.708578790553819,-7.058745797111503
297,3.739414016500431,4.05981703697992
298,-10.333766199621232,-10.223256997615293
299,-10.2461248601444,10.393032381602024
300,-9.07945584966109,9.697713513693348
301,-8.358338908689547,-11.006159422705606
302,-6.822942312922594,9.404049982773913
303,-1.4172636377647034,-2.2867026843374774
304,-3.8894084310472277,4.415539401351915
305,-7.450357070531948,3.0018689501069606
306,2.366293569514707,9.047486326486263
307,-5.834545549015985,1.1864324222220284
308,-3.666145994335794,1.118615912437815
309,8.042512047602356,-7.142041227579075
310,0.17163287009105976,-0.209809116010812
311,1.3193678671954685,0.5574897643587178
312,2.263879940196031,1.2413633934656225
313,-0.3739599714758286,1.7963456357276866
314,10.064204524532045,9.36778334872604
315,6.7177970733201136,8.983004017258262
316,9.37484181973718,-8.531602758356998
317,-8.926962756532626,-7.381369760239614
318,-4.877758044799626,8.575069996829614
319,-6.430751891900946,7.224639915430043
320,-6.06451211465767,4.584492132194691
321,-7.426489908967232,7.209446396575644
322,-4.332807984804818,-6.046859896514135
323,-4.748138935823093,0.8898148392440175
324,-6.296243393690956,-10.000704266658984
325,-5.784386192005137,9.093088742782621
326,-9.175998796634778,8.59176015866102
327,9.696125464048826,3.676985800444763
328,0.4033509432385802,2.5697889728347865
329,7.905194737329362,9.320097022725871
330,-9.707139066365498,3.2479608207605404
331,-0.14757465581197504,4.731795115975395
332,10.097290656285379,-10.62319016084687
333,8.656556364616675,-10.585134639449711
334,9.155402525351844,10.833878190499098
335,10.172391124296661,10.412133141855278
336,-10.548348244711518,-7.060675146253579
337,-10.185888324803855,-3.0562625360389233
338,10.416902583221434,-9.033505718505332
339,-7.906771319063171,10.358556425688912
340,-10.985574358052487,-8.126204498471628
341,-8.363773945658957,5.257873319224819
342,-5.864497658140829,10.14410230470039
343,10.715247479392595,3.1871887219249047
344,-3.7797136908624562,-9.605744812434521
345,-3.1502875009162454,-6.602295323400066
346,2.4203431059735703,10.177704965006015
347,-3.024818690124414,5.826892561707231
348,-2.7311577187541713,4.699832639663262
349,-9.651279812290378,5.407348478699934
350,6.175537209943388,9.971176131262876
351,9.57068071254965,-9.792384029102607
352,4.905526464391572,0.7757357647826238
353,5.362407156645877,-9.880121986567948
354,10.307319798578485,-7.99689329764779
355,-9.154876125054056,-8.420694482363078
356,-10.604603014252884,4.009616868353524
357,-9.948149308780055,-7.822612406319505
358,-9.295665026911417,10.725659513063002
359,10.152698796654764,-4.2908914983298185
360,10.52299062102939,6.814788043627146
361,10.13894882611878,8.158101130472062
362,-3.9272544043074813,5.405133509505437
363,-10.04758838457512,9.246461438979951
364,-4.850965309352348,4.018192744193095
365,-2.4250954220408882,2.203352384203816
366,-7.9849488838233045,6.189353836114863
367,-1.9154032267807857,3.3203528268822327
368,-1.0006137085612625,0.21559718097504557
369,-10.273241341914124,-5.6619758949831365
370,2.2513367924394743,-11.074793618468695
371,2.431981185406668,7.520306003461951
372,3.0313076428774535,-5.368100232751841
373,4.880260513559115,-5.36105119182243
374,4.074462892973232,-7.154322149369469
375,-5.191132754799506,-6.686698473728357
376,-2.168919477226284,-5.999501565397018
377,7.600388639657431,-10.97090632049959
378,-9.442278062979325,-9.453312293852356
379,-0.39793254430583064,-4.570633925433089
380,6.616008392485529,2.2892418588259416
381,-10.621153795039985,-0.6767824016684316
382,-6.054023748961862,-11.07336464826138
383,0.4932715521060102,8.6872476615963
384,-5.5056932319125425,6.747243109206933
385,-4.0849840695887565,-8.40856876275896
386,-2.0169043654491694,5.554061009508593
387,8.80115580168176,6.555826720838378
388,-3.748016255505349,8.821433317256371
389,3.6073714240012187,10.071541858654326
390,-0.9940555019934157,6.443456926119848
391,3.555533159849007,7.228938302661409
392,8.10362736588236,-5.900131743921158
393,-9.445003211293331,-6.45030068978809
394,7.493304857735509,-8.739094484649819
395,9.605831764524444,7.316625315027465
396,-10.113807004728498,-4.492633753334527
397,-4.9008117483360465,-9.40345469050708
398,-2.1014621052784084,-8.385014851262811
399,8.589048061192528,8.464604664886604
