,0,1
0,7.70240745052714,4.8503179576779765
1,-6.661717640132072,2.8296806616772647
2,9.7499695002578,-0.9085729744518455
3,-9.467888435881994,-6.026827460960565
4,-3.7893171836578086,-1.2281458147676818
5,-9.21877049531209,-3.517332807152804
6,-6.2487408024034785,-7.729935175265101
7,-4.921602744446692,-6.758859605536288
8,-0.635308575804551,1.8704119675946893
9,-5.605174251025298,3.0466666250811234
10,1.5520704977319648,-6.603976767966247
11,5.953491686252197e-05,-6.578710606166594
12,3.482076873432389,-0.6285203470964932
13,-0.3562855846745942,-5.599364679628071
14,-3.8142205383956,-6.551408524077102
15,1.4901431501145905,-4.856723832105731
16,9.130743598240878,-8.939027602327092
17,7.519638738481466,-7.4245163135599705
18,7.079462357546372,-0.8116491222393091
19,-10.128876962646844,-0.929635305259873
20,9.847717246539606,-5.318075871960095
21,-8.388586875844295,-8.458659483105311
22,9.2062495820952,-2.039344365797059
23,-5.615135577304846,-0.2627443202025796
24,-5.688606674183255,-8.915911712996124
25,-9.47946493252165,0.440052465794796
26,-0.8725635467641936,2.8450781942813537
27,-6.359333402454553,0.5104475074708628
28,-2.2586551538379744,-2.433550261608048
29,-8.370363887991381,-4.620073643267223
30,-3.169610103845125,-5.423686485951398
31,3.9269291814458884,-5.100868705505028
32,-5.187329679130168,-5.796136866602315
33,5.591979636388608,-7.6791985319663825
34,0.7329971879681018,-5.660688821817038
35,7.378584284379743,-9.028550064394837
36,1.9544114701881405,-7.614397512255746
37,-6.948838103753096,-2.9785199275640264
38,10.973879936383542,6.278203510254583
39,-9.671548613591252,-7.196167704174236
40,-6.116239675973664,1.9497322438353084
41,10.409712818101854,0.04085703023441613
42,-10.937409866498278,-0.10129586133811282
43,-10.483970789829618,-4.32154115823958
44,-5.459589964353432,-10.92089948652363
45,-9.534227069661851,-8.364604091400919
46,-10.584451594929265,3.1855381574686366
47,-6.345848149453656,-1.537063525514365
48,1.3785629054099628,2.8656694996631575
49,-2.964096419493412,-8.754012557941948
50,-1.3984677274563504,-9.452732379950563
51,-10.714648445423103,-7.806616383104368
52,-3.7807791373457453,-3.1236539309051223
53,-3.7928054408987357,-4.229296898696361
54,-0.29919177008277004,0.8832767877654757
55,-4.702595927170647,-3.535662542069905
56,-8.708989308106666,-0.4089906695476291
57,8.918827768059034,-7.64814131015535
58,-10.583673346104142,-6.4876041596822365
59,-10.531572285814708,5.475847581828254
60,-10.224587012232778,6.779105741497723
61,-7.072046428636938,1.5318805493966798
62,-10.516383866028141,0.8950153614514821
63,-4.743966541266437,-0.8704665365446578
64,-3.527134617898703,4.084750599638228
65,-5.450080749648483,1.0587202500502555
66,2.7477490830435993,1.4172022746905535
67,-8.528890945028529,-7.087240978781562
68,0.7722836128888293,-9.601101420238903
69,-2.404560441204253,-9.69525239224761
70,-3.730181135875962,2.2998891985248817
71,-2.4730567497720286,-6.390948334642844
72,4.166687706556443,0.07749428228437523
73,2.8409797221518955,4.495289011043334
74,-0.7840172414023182,-7.508461827617665
75,2.5090059130896267,-4.568684555960991
76,1.8317022459597725,-3.6119455910766036
77,11.061857943048537,-1.249970373019866
78,-10.400863184268855,-3.3107059232445732
79,3.1335862181403793,-7.178219354797827
80,-0.7528968192072542,6.1572416493946465
81,7.9499372585848915,-0.06573177925428797
82,-6.908735323050368,-4.187824745185388
83,1.7614664657001862,1.0968008926906239
84,7.004210002543389,-5.2135846454048025
85,-1.3654134590786544,-0.014002736663996148
86,-7.318817474248422,4.809377979385444
87,-4.242727034951399,-10.672104714926943
88,-3.2861661132101814,10.70577105176518
89,-5.444456863246057,4.269859221943792
90,0.5858745845982443,5.74898286362055
91,-3.204560938572753,0.7523174827002699
92,0.4299162136610368,-3.0209629168167695
93,4.489929040680092,-7.172952725932655
94,0.8952307137938504,-10.8370115868123
95,-7.66174230335109,0.6260291091509986
96,10.638272160190049,4.101083247403809
97,6.551673581515781,-7.937186808323861
98,-2.4560782699459454,-1.0498408274474893
99,-3.371224157074932,-0.2597950827735298
100,-1.9340299287344684,2.989176184303655
101,-2.356336693385482,3.9752901451329947
102,-1.518609611379767,5.009458014582863
103,-2.731655663930864,9.629077530796973
104,-6.219908563338636,-6.279069003878882
105,0.1187449248656292,7.893714539224385
106,-3.106656484988408,6.404434022210356
107,-0.5117807102069064,-1.7602737006526354
108,-4.618599973195094,0.1334150795776617
109,-5.428685370865332,-2.8140252435691435
110,7.193237822990727,-6.376796835847435
111,-4.985894590270269,2.047792546600339
112,-6.032624975991308,-4.943096348811387
113,2.693275245393312,-8.44626467040157
114,10.829523517669255,-7.269166832799119
115,8.228592992976862,-2.57506957386521
116,8.920795488724968,-4.846237602749158
117,6.755220550561721,-3.8464291731404927
118,-8.657469653323883,2.918966665078471
119,-4.4926465430948035,4.648143365190975
120,-7.913034151636948,-3.47896282827731
121,4.5271907975118895,-3.322917405922156
122,-10.622639558478868,4.2054564052166175
123,-8.517142139532327,4.01643816701729
124,-3.7951862711201247,9.77032360798488
125,-9.55324456939237,3.9594433621879355
126,-4.197122813706657,1.2205397111249456
127,-3.1829117156486655,8.575621940211041
128,-9.335899340889684,6.074255253074495
129,3.144820391171992,-6.019999263616464
130,4.678814966952075,-4.327623710435301
131,4.185768230517356,-10.457369366513392
132,-1.5241743917149042,-1.4805102516803348
133,-9.38881542475399,-4.745628658674996
134,5.313524260783535,-10.098517074581368
135,9.846208097331086,-3.014565200433762
136,9.783786509349618,-4.171560803924739
137,5.6455804376582925,-3.7029808696912934
138,-9.647249110820342,2.827784505842166
139,9.615366294275011,2.3300112064240137
140,7.566107098745678,2.5081760235457136
141,8.576252634123279,0.9971169549100783
142,-10.6699045980731,2.158488019519823
143,-6.031464462659945,5.151566324323058
144,10.123802465682486,8.067015790275363
145,-2.3879064186635333,7.483178448434242
146,-1.699999641850195,-4.153423977080691
147,-3.7755027126920058,5.519556746949453
148,-7.914273208182213,2.161527329755857
149,-4.21321295785734,6.548694367021108
150,-1.9465500989396718,0.9173738009920934
151,7.749045630925113,-3.4855281881139266
152,10.806763630725248,-6.206586000664769
153,2.4605206505247583,-2.7328247171347915
154,4.171674572337917,-6.1827129729266845
155,-10.71217286941726,-2.2987170188521286
156,3.5936542405335703,3.6327824328801768
157,4.314180998517164,-2.1935069619727363
158,6.426567541976206,2.068662822807792
159,6.8245127805874635,6.824255469550979
160,5.3653547933920915,1.4530314864506826
161,5.36854990375608,-1.4272487231599638
162,6.083256877554898,10.071022939652742
163,4.4210307322875195,-1.11348727297369
164,6.376247754754463,-1.7316194680996064
165,-3.537836999258945,7.441421575634926
166,-5.870827026270856,7.88092730022326
167,-9.923738525789409,10.896697483456554
168,-2.771929905838633,1.7474156010205344
169,-7.557329259799049,6.671766069476332
170,0.564038177549495,-1.6821082548571702
171,1.6769441345022678,-1.6770376406819247
172,-3.1037170263657266,3.129867480667066
173,3.5087400507944153,-4.095506779959875
174,10.802290514312562,-3.5286196842336754
175,3.4886893059263406,-3.0508884842643527
176,6.790490910537114,4.368606535904603
177,7.112110517787612,-2.5543893574113845
178,8.485175884871037,2.0718644549831686
179,5.719775187697535,3.4777509633717627
180,9.54425040282675,4.913526120103106
181,10.941150966098851,-4.906904718108869
182,6.040777733536222,-0.43866706039148967
183,6.997090188226216,0.22435570744320776
184,10.281475202771936,-1.9254822333484627
185,-0.26337049225832304,-9.503263601057897
186,-4.644220504662326,10.75654550640887
187,-6.491524170311892,4.041691651816056
188,-5.019058950617382,7.174106644325777
189,-1.757447033436683,1.934015648274781
190,-0.42483777127583516,9.705259095355096
191,6.020598042169489,-4.6801061821758925
192,0.5681038401664333,4.477667837279886
193,-0.36092269171675784,-0.6431297575048959
194,1.6358458990732587,10.60291132019916
195,-0.48084125388285837,-3.4742394921826696
196,9.19673931619174,0.03311756639698907
197,8.250793544364614,-6.735005230446918
198,8.646439258757221,-0.8536233117751736
199,0.7993949467285341,-3.960294910339373
200,-6.747277825978819,-9.593883143152064
201,-7.772348852797473,-0.9946624639157858
202,5.424155603375943,2.5266807695134497
203,3.613178814502896,7.765680433242928
204,11.172346654187306,7.435597962353513
205,-0.7115197275094955,10.987211136100917
206,10.85580357514084,1.2029100680136204
207,-1.082838854418343,8.04026050138387
208,-7.468602223187487,3.586385485889003
209,5.354292166895627,-6.599713871139365
210,7.979153742710808,-5.705808898121715
211,2.5886923732711384,7.34561822706473
212,4.1952747712287985,4.478371551212266
213,3.0388142589930287,0.34002255888589844
214,5.520451681549511,5.757967197781995
215,4.547241783961889,7.209510272812679
216,6.029072152864418,-5.760537478717108
217,6.186283033746678,-8.998489980749856
218,-11.117303832761598,-9.778916944639816
219,8.921765665366427,9.845382966560713
220,7.8396779696456536,-1.4863437438613851
221,-8.758077183156884,6.876878373276486
222,5.613947414782605,-2.6166499813579653
223,-8.146337955251042,5.532421563691514
224,-9.598593825539947,4.991012108433654
225,-7.087322389152505,10.614906257971704
226,-4.102632711719823,-7.515273148062007
227,0.8576460676738393,-0.6524624503053577
228,4.57956758999769,3.2519356145149962
229,-1.405755732479068,7.0500757151127145
230,-2.3795902109292575,0.0468854287037493
231,4.463005405636237,2.0201441366708828
232,8.84453272518052,-3.382682405183185
233,-0.5607327962346783,4.695088708747936
234,6.4497870971578815,5.3396486634469005
235,7.321749395121701,8.50495385607778
236,5.379875927246177,4.4663209458717565
237,3.511256117381752,2.147892594657139
238,5.166823967294954,0.3173809119919087
239,7.843223637952527,-4.5328509058693305
240,-6.685959935721791,8.576293321935953
241,6.323890581810956,1.027505879493796
242,10.551348248168301,3.052943515685843
243,-6.543680835952396,-10.797322757939757
244,10.509396911708,-10.723003444995795
245,7.3686257654047465,5.93636509187114
246,-1.831842695080179,10.448575558857044
247,-7.6514647638256905,8.986923732920383
248,0.3285885036130267,8.928977661612823
249,1.9669980646272038,-10.699056522294521
250,1.5318470022080222,6.491545372268241
251,-0.1488087300209603,-4.544801163466313
252,1.5498799410778021,-8.629508493438578
253,-1.2640117249937457,3.8493645183201846
254,2.2891869360420243,8.351468081670445
255,7.44331481098631,-10.234808395463196
256,5.323353237821415,8.149414644944518
257,10.15841200204493,6.989374105561978
258,3.8667167023276776,1.1080612306571216
259,2.095368364276344,2.1388058950317688
260,9.49307426690248,10.899229730746235
261,8.10758319271072,7.713056924852463
262,-7.540555173876991,7.819063963564228
263,9.159621133613058,-10.247064579394674
264,9.569826036390177,0.9977026925655155
265,-4.954913855749719,9.773502779073999
266,-7.927940716657564,10.019828580180953
267,8.874468885421223,4.149245308940365
268,-0.17528460632028606,-10.538281903921376
269,0.626104063777744,1.4344652153658424
270,-4.388990791396751,3.1337020636759467
271,1.6770532866222534,3.913163713783459
272,4.42680606331295,6.073297056555596
273,1.9241785915009695,-0.1831815442318528
274,8.228118164805643,-10.960698154078445
275,3.354489979064885,6.468092920168147
276,7.419399371822494,1.2085860998271476
277,2.4221769714736174,6.031651019063395
278,9.951291792741097,5.918881721890091
279,11.028270678987827,8.556065291055749
280,-8.584101978231987,8.18894180812473
281,8.24036948049302,6.59694804103941
282,-4.806581157144137,5.758940598944865
283,-7.768666754634001,-10.647514185447704
284,10.165908746511887,-8.336637304285762
285,-6.541203475938173,7.08578875682827
286,-2.5511439839476853,5.244357760083536
287,-6.872453022550276,5.833530040625173
288,3.35098834493682,-1.7813008833055488
289,1.006219927279602,9.745930326889425
290,2.549776604183502,-1.1297970742893577
291,-2.0260759824140906,6.220717948178882
292,1.3607341806562776,8.695376757772623
293,6.355893301251926,8.970748177653247
294,3.660488429751114,5.3783096521071965
295,-3.309223662140447,-2.313697611980556
296,6.766136450306277,3.2703298342428067
297,10.71064982417395,5.187902380955879
298,0.16664665110539073,6.7946854614254875
299,9.599622267546811,3.4091493543753355
300,-5.771649011727581,6.342131267251343
301,-9.576740960739155,7.688238856373721
302,7.99514382750056,10.358493376784901
303,5.79018600887214,6.768457843069137
304,10.097864786048746,9.192454297525154
305,-2.6096128485520222,-10.727150984644775
306,-8.71296571533753,-2.622016022234786
307,-2.1891276084068463,8.538764799746167
308,2.499405091939347,3.170624255070238
309,0.38930719129946995,10.511587134566582
310,-0.1402389111511897,3.619751001993891
311,-4.683599248301618,-9.606196111502845
312,5.000419926808058,10.2663452687458
313,1.968199130257293,5.0192162458105205
314,7.092155399675344,9.716560706187304
315,5.352596551014256,9.301532245164973
316,-9.787908464589712,9.748523857615094
317,10.232945139046928,-9.656293375334123
318,5.685180018181695,11.134945859123233
319,8.603148488206404,3.083840683101777
320,8.60438219833228,5.569102949599985
321,9.096248584553086,8.514878284408548
322,-7.7616202328109125,-9.3738565573154
323,-8.699142283763111,-1.4792499620771797
324,-5.733329746146207,-9.88855646517788
325,-7.668406642081818,-7.670374760647958
326,-10.977279065368409,9.80718295357223
327,-1.0638801199879422,-6.529179000598794
328,-1.937027107817781,-8.42103005835618
329,-4.236143804885889,-5.3218898616456505
330,-4.03508042517637,-8.759972160548864
331,1.412411854919739,7.638315964237562
332,3.0143523889170565,10.470787801794504
333,4.118209665275389,9.59832685912822
334,7.711351727239778,3.78460006033039
335,8.318104605218881,-9.707952780970812
336,6.4714970061002175,7.840679222296105
337,3.2688469629607844,-9.676563393115455
338,3.872687027956996,-8.167692173909124
339,-10.993860981993924,10.987441535977784
340,5.178095171232669,-8.663402781081503
341,-9.03828805232556,-9.458186209384838
342,-11.056826499952845,-8.673056729388692
343,-8.950635244975278,-10.4958117938113
344,4.292011349649334,-9.239457227871062
345,-4.1327422577835895,8.22068960285648
346,0.5583254991027649,-8.635880342790708
347,-10.278945527382728,8.533944645841443
348,-10.077297311608845,-10.403190240789568
349,-7.7086000904678915,-2.1256599748197367
350,0.22743668195764163,2.6685853536536857
351,-2.0136979188079405,-7.344986427637506
352,-0.5927887126761164,-8.508773502592396
353,-1.4278689494195596,-10.465003941160674
354,6.998656304692724,11.01446272825531
355,2.2343306452623763,9.758287328951207
356,3.973342630853201,10.661244966781933
357,9.810182684407312,-7.0128833192856135
358,8.216449521576326,9.082037169006213
359,9.17349889815366,7.319808773948332
360,-6.887924807858553,-8.624594939146725
361,-10.193693131230743,-5.318046100973643
362,-8.555253533503448,1.2058012417593098
363,6.320230333088836,-6.932054651212161
364,-8.843299136442104,9.278886414553872
365,-6.064477569240016,9.420913565586897
366,10.459635390935,10.423753934853499
367,-3.077256471113727,-7.576820351427536
368,-3.511539865559357,-9.682081411878437
369,-1.2769825018219296,-2.537608046653973
370,2.114178870607665,-9.540405098932952
371,-7.499578340407728,-6.606745034008262
372,6.455386437635375,-10.400587382909695
373,9.070478779714097,-6.042513022683726
374,3.0336458688512535,-10.749051547281049
375,4.3553877022543785,8.521976151845374
376,5.04858692090441,-5.324412422998412
377,0.9073122807079196,-7.583518713765096
378,2.1892386208230006,-5.61261046948091
379,-8.941847598299665,10.677519363485121
380,-8.236642171784412,-5.718218812466223
381,-1.6298254059186816,-5.30560311417639
382,-5.8845650663657345,10.415700807351842
383,8.139087815090726,-8.43287840246238
384,-1.6474428116993718,9.441695921128343
385,-5.146363486479774,8.711412840960682
386,-6.766788810568629,-0.5910489325680652
387,3.132043724140978,9.269181917448499
388,-5.040906213572574,-8.0361188914058
389,-4.654557581536577,-1.973207730396025
390,-2.710330669320761,-3.355913556139101
391,-7.064988958387893,-5.204741939433041
392,-4.960605840375174,-4.497112652829353
393,0.8316941499584649,0.3925622745232675
394,-5.912028122069622,-3.7705933959824716
395,-2.745699368050936,-4.458432209833765
396,-9.736436304332825,1.634994009548201
397,1.3565137369387243,-2.6720008420094725
398,-9.646314086596467,-2.160098321518073
399,-10.10764958302018,-9.376100747141475
